{
    "Weights": [
        [-2.1841480130278317,
            -1.184148013027832,
            -1.184148013027832,
            -0.1841480130278319,
            -1.184148013027832,
            -1.184148013027832,
            -0.1841480130278319,
            -0.1841480130278319,
            -0.1841480130278319,
            1.815851986972168,
            1.815851986972168,
            -0.1841480130278319,
            -0.1841480130278319,
            -0.1841480130278319,
            -1.184148013027832,
            0.8158519869721681,
            1.815851986972168,
            -0.1841480130278319,
            1.815851986972168,
            0.8158519869721681,
            -1.184148013027832,
            -0.1841480130278319,
            0.8158519869721681,
            0.8158519869721681,
            0.8158519869721681,
            1.815851986972168,
            0.8158519869721681,
            0.8158519869721681,
            -0.1841480130278319,
            0.8158519869721681,
            0.8158519869721681,
            0.8158519869721681,
            0.8158519869721681,
            0.8158519869721681,
            1.815851986972168,
            -1.184148013027832,
            0.8158519869721681,
            0.8158519869721681,
            1.815851986972168,
            1.815851986972168,
            0.8158519869721681,
            0.8158519869721681,
            -0.1841480130278319,
            -0.1841480130278319,
            0.8158519869721681,
            -0.1841480130278319,
            0.8158519869721681,
            -0.1841480130278319,
            0.8158519869721681,
            0.8158519869721681,
            -1.184148013027832,
            0.8158519869721681,
            0.8158519869721681,
            -0.1841480130278319,
            -1.184148013027832,
            1.815851986972168,
            0.8158519869721681,
            -0.1841480130278319,
            -2.1841480130278317,
            -2.1841480130278317,
            -2.1841480130278317,
            -0.1841480130278319,
            2.8158519869721683
        ],
        [0.8158519869721681,
            -0.1841480130278319,
            -2.1841480130278317,
            -3.1841480130278317,
            -1.184148013027832,
            1.8158519869721683,
            -1.184148013027832,
            0.8158519869721681,
            -1.184148013027832,
            0.8158519869721681,
            -1.184148013027832,
            0.8158519869721681,
            -2.1841480130278317,
            1.8158519869721683,
            -1.184148013027832,
            0.8158519869721681,
            -0.1841480130278319,
            -0.1841480130278319,
            -1.184148013027832,
            0.8158519869721681,
            0.8158519869721681,
            -1.184148013027832,
            0.8158519869721681,
            -1.184148013027832,
            0.8158519869721681,
            -1.184148013027832,
            1.815851986972168,
            0.8158519869721681,
            -1.184148013027832,
            0.8158519869721681,
            1.815851986972168,
            2.8158519869721683,
            0.8158519869721681,
            1.8158519869721683,
            -0.1841480130278319,
            -1.184148013027832,
            -1.184148013027832,
            -1.184148013027832,
            -1.184148013027832,
            -1.184148013027832,
            -1.184148013027832,
            1.815851986972168,
            -2.1841480130278317,
            -0.1841480130278319,
            0.8158519869721681,
            0.8158519869721681,
            0.8158519869721681,
            -0.1841480130278319,
            -0.1841480130278319,
            -0.1841480130278319,
            -2.1841480130278317,
            0.8158519869721681,
            0.8158519869721681,
            0.8158519869721681,
            -3.1841480130278317,
            0.8158519869721681,
            -1.184148013027832,
            -1.184148013027832,
            -2.1841480130278317,
            -1.184148013027832,
            -2.1841480130278317,
            -0.1841480130278319,
            -2.1841480130278317
        ],
        [-1.184148013027832,
            -1.184148013027832,
            -0.1841480130278319,
            -1.1841480130278317,
            -0.1841480130278319,
            -0.1841480130278319,
            1.815851986972168,
            -0.1841480130278319,
            1.815851986972168,
            0.8158519869721681,
            -0.1841480130278319,
            0.8158519869721681,
            -0.1841480130278319,
            1.815851986972168,
            1.815851986972168,
            -0.1841480130278319,
            0.8158519869721681,
            -0.1841480130278319,
            0.8158519869721681,
            -0.1841480130278319,
            -0.1841480130278319,
            1.815851986972168,
            -0.1841480130278319,
            -0.1841480130278319,
            0.8158519869721681,
            -0.1841480130278319,
            -0.1841480130278319,
            -1.184148013027832,
            1.815851986972168,
            -0.1841480130278319,
            -1.184148013027832,
            -0.1841480130278319,
            -1.184148013027832,
            -1.184148013027832,
            -0.1841480130278319,
            1.815851986972168,
            -1.184148013027832,
            -0.1841480130278319,
            -0.1841480130278319,
            -0.1841480130278319,
            -1.184148013027832,
            -1.184148013027832,
            1.815851986972168,
            -2.1841480130278317,
            0.8158519869721681,
            0.8158519869721681,
            0.8158519869721681,
            -1.184148013027832,
            -0.1841480130278319,
            -0.1841480130278319,
            -0.1841480130278319,
            0.8158519869721681,
            0.8158519869721681,
            0.8158519869721681,
            -1.1841480130278317,
            0.8158519869721681,
            -2.1841480130278317,
            -2.1841480130278317,
            -1.1841480130278317,
            -0.1841480130278319,
            -1.1841480130278317,
            -0.1841480130278319,
            -0.1841480130278319
        ],
        [-0.1841480130278319,
            -0.1841480130278319,
            -1.184148013027832,
            -1.184148013027832,
            -0.1841480130278319,
            -2.1841480130278317,
            -1.184148013027832,
            -0.1841480130278319,
            -0.1841480130278319,
            0.8158519869721681,
            -0.1841480130278319,
            -0.1841480130278319,
            1.815851986972168,
            -1.184148013027832,
            -1.184148013027832,
            0.8158519869721681,
            0.8158519869721681,
            -1.184148013027832,
            -0.1841480130278319,
            0.8158519869721681,
            1.815851986972168,
            -1.184148013027832,
            0.8158519869721681,
            -2.1841480130278317,
            -1.184148013027832,
            -1.184148013027832,
            0.8158519869721681,
            2.8158519869721683,
            -1.184148013027832,
            -0.1841480130278319,
            -1.184148013027832,
            -0.1841480130278319,
            -1.184148013027832,
            0.8158519869721681,
            2.8158519869721683,
            -1.184148013027832,
            -0.1841480130278319,
            -1.184148013027832,
            -1.184148013027832,
            -0.1841480130278319,
            -0.1841480130278319,
            2.8158519869721683,
            -1.184148013027832,
            -0.1841480130278319,
            0.8158519869721681,
            -0.1841480130278319,
            0.8158519869721681,
            -0.1841480130278319,
            1.815851986972168,
            -0.1841480130278319,
            -1.184148013027832,
            0.8158519869721681,
            0.8158519869721681,
            -0.1841480130278319,
            0.8158519869721681,
            -1.184148013027832,
            -1.184148013027832,
            -0.1841480130278319,
            -1.184148013027832,
            -0.1841480130278319,
            -1.184148013027832,
            -3.1841480130278317,
            -2.1841480130278317
        ],
        [1.815851986972168,
            0.8158519869721681,
            -0.1841480130278319,
            -0.1841480130278319,
            0.8158519869721681,
            -0.1841480130278319,
            2.8158519869721683,
            1.815851986972168,
            -1.184148013027832,
            -0.1841480130278319,
            -0.1841480130278319,
            -1.184148013027832,
            -2.1841480130278317,
            1.815851986972168,
            0.8158519869721681,
            -0.1841480130278319,
            0.8158519869721681,
            -2.1841480130278317,
            1.815851986972168,
            -1.184148013027832,
            -1.184148013027832,
            -0.1841480130278319,
            -0.1841480130278319,
            -2.1841480130278317,
            1.815851986972168,
            -0.1841480130278319,
            -2.1841480130278317,
            -0.1841480130278319,
            -0.1841480130278319,
            0.8158519869721681,
            0.8158519869721681,
            2.8158519869721683,
            1.815851986972168,
            -0.1841480130278319,
            -0.1841480130278319,
            -0.1841480130278319,
            -0.1841480130278319,
            -1.184148013027832,
            -0.1841480130278319,
            -0.1841480130278319,
            -1.184148013027832,
            -1.184148013027832,
            -0.1841480130278319,
            -1.1841480130278317,
            0.8158519869721681,
            -0.1841480130278319,
            -0.1841480130278319,
            -1.184148013027832,
            -2.1841480130278317,
            0.8158519869721681,
            -2.1841480130278317,
            0.8158519869721681,
            0.8158519869721681,
            -0.1841480130278319,
            -3.1841480130278317,
            0.8158519869721681,
            -0.1841480130278319,
            1.815851986972168,
            -1.1841480130278317,
            1.815851986972168,
            0.8158519869721681,
            0.8158519869721681,
            1.815851986972168
        ],
        [0.8158519869721681,
            -1.1841480130278317,
            -2.1841480130278317,
            -0.1841480130278319,
            0.8158519869721681,
            0.8158519869721681,
            1.815851986972168,
            0.8158519869721681,
            -2.1841480130278317,
            -0.1841480130278319,
            -0.1841480130278319,
            -0.1841480130278319,
            0.8158519869721681,
            0.8158519869721681,
            -0.1841480130278319,
            -1.184148013027832,
            0.8158519869721681,
            -1.184148013027832,
            0.8158519869721681,
            1.815851986972168,
            -0.1841480130278319,
            -1.184148013027832,
            -1.184148013027832,
            -1.184148013027832,
            0.8158519869721681,
            -0.1841480130278319,
            1.815851986972168,
            -0.1841480130278319,
            -1.184148013027832,
            -1.184148013027832,
            -2.1841480130278317,
            -0.1841480130278319,
            -1.184148013027832,
            1.815851986972168,
            -0.1841480130278319,
            -0.1841480130278319,
            -1.184148013027832,
            -0.1841480130278319,
            -1.184148013027832,
            -0.1841480130278319,
            1.815851986972168,
            -0.1841480130278319,
            -0.1841480130278319,
            -0.1841480130278319,
            0.8158519869721681,
            0.8158519869721681,
            -0.1841480130278319,
            1.815851986972168,
            -1.184148013027832,
            0.8158519869721681,
            -1.184148013027832,
            0.8158519869721681,
            0.8158519869721681,
            0.8158519869721681,
            -0.1841480130278319,
            -0.1841480130278319,
            -2.1841480130278317,
            -0.1841480130278319,
            -0.1841480130278319,
            1.815851986972168,
            0.8158519869721681,
            -1.184148013027832,
            -2.1841480130278317
        ],
        [1.815851986972168,
            -0.1841480130278319,
            -1.184148013027832,
            -3.1841480130278317,
            -1.184148013027832,
            1.815851986972168,
            1.815851986972168,
            0.8158519869721681,
            0.8158519869721681,
            0.8158519869721681,
            -1.184148013027832,
            2.8158519869721683,
            -0.1841480130278319,
            -0.1841480130278319,
            -0.1841480130278319,
            1.815851986972168,
            0.8158519869721681,
            0.8158519869721681,
            0.8158519869721681,
            0.8158519869721681,
            -1.184148013027832,
            -0.1841480130278319,
            1.815851986972168,
            0.8158519869721681,
            0.8158519869721681,
            -1.184148013027832,
            0.8158519869721681,
            -0.1841480130278319,
            -0.1841480130278319,
            1.815851986972168,
            -1.184148013027832,
            -0.1841480130278319,
            -2.1841480130278317,
            -0.1841480130278319,
            0.8158519869721681,
            -0.1841480130278319,
            -0.1841480130278319,
            0.8158519869721681,
            0.8158519869721681,
            -0.1841480130278319,
            -1.184148013027832,
            -0.1841480130278319,
            -0.1841480130278319,
            -0.1841480130278319,
            -0.1841480130278319,
            0.8158519869721681,
            0.8158519869721681,
            -1.184148013027832,
            -1.184148013027832,
            0.8158519869721681,
            -1.184148013027832,
            0.8158519869721681,
            0.8158519869721681,
            1.815851986972168,
            -1.184148013027832,
            -0.1841480130278319,
            0.8158519869721681,
            -1.184148013027832,
            -1.184148013027832,
            -1.184148013027832,
            -2.1841480130278317,
            -0.1841480130278319,
            0.8158519869721681
        ]
    ],

    "Biases": [
        [-1.8582477254298473],
        [-3.8582477254298473],
        [-1.8582477254298473],
        [-2.8582477254298473],
        [-2.8582477254298473],
        [-1.8582477254298473],
        [-1.8582477254298473]
    ]
}